digraph Tree {
node [shape=box, fontname="helvetica"] ;
edge [fontname="helvetica"] ;
0 [label="Production Cost <= 4.5\ngini = 0.375\nsamples = 16\nvalue = [12, 4]"] ;
1 [label="Production Cost <= 1.5\ngini = 0.5\nsamples = 8\nvalue = [4, 4]"] ;
0 -> 1 [labeldistance=2.5, labelangle=45, headlabel="True"] ;
2 [label="gini = 0.5\nsamples = 2\nvalue = [1, 1]"] ;
1 -> 2 ;
3 [label="Production Cost <= 2.5\ngini = 0.5\nsamples = 6\nvalue = [3, 3]"] ;
1 -> 3 ;
4 [label="gini = 0.5\nsamples = 2\nvalue = [1, 1]"] ;
3 -> 4 ;
5 [label="Production Cost <= 3.5\ngini = 0.5\nsamples = 4\nvalue = [2, 2]"] ;
3 -> 5 ;
6 [label="gini = 0.5\nsamples = 2\nvalue = [1, 1]"] ;
5 -> 6 ;
7 [label="gini = 0.5\nsamples = 2\nvalue = [1, 1]"] ;
5 -> 7 ;
8 [label="gini = 0.0\nsamples = 8\nvalue = [8, 0]"] ;
0 -> 8 [labeldistance=2.5, labelangle=-45, headlabel="False"] ;
}